network "MyNetwork3" {
// written by aGrUM 0.16.3
}

variable A {
   type discrete[3] {0, 1, 2};
}

variable B {
   type discrete[6] {0, 1, 2, 3, 4, 5};
}

variable C {
   type discrete[3] {0, 1, 2};
}

variable D {
   type discrete[3] {0, 1, 2};
}

variable E {
   type discrete[3] {0, 1, 2};
}

variable F {
   type discrete[2] {0, 1};
}

probability (A) {
   default 0.333333 0.166667 0.5;
}
probability (B | A) {
   (0) 0.333333 0.333333 0.333333 0 0 0;
   (1) 0 0.166667 0.333333 0.333333 0.166667 0;
   (2) 0 0 0 0.333333 0.333333 0.333333;
}
probability (C | A) {
   (0) 0.1 0.4 0.5;
   (1) 0.3 0.5 0.2;
   (2) 0.9 0.1 0;
}
probability (D | B, C) {
   (0, 0) 0.9 0.05 0.05;
   (1, 0) 0.8 0.15 0.05;
   (2, 0) 0.7 0.15 0.15;
   (3, 0) 0.9 0.05 0.05;
   (4, 0) 0.8 0.15 0.05;
   (5, 0) 0.7 0.15 0.15;
   (0, 1) 0.8 0 0.2;
   (1, 1) 0.75 0.05 0.2;
   (2, 1) 0.7 0.1 0.2;
   (3, 1) 0.8 0 0.2;
   (4, 1) 0.75 0.05 0.2;
   (5, 1) 0.7 0.1 0.2;
   (0, 2) 0.7 0 0.3;
   (1, 2) 0.65 0.1 0.25;
   (2, 2) 0.6 0.15 0.15;
   (3, 2) 0.7 0 0.3;
   (4, 2) 0.65 0.1 0.25;
   (5, 2) 0.6 0.15 0.15;
}
probability (E | B, C, D) {
   (0, 0, 0) 1 0 0;
   (1, 0, 0) 1 0 0;
   (2, 0, 0) 1 0 0;
   (3, 0, 0) 1 0 0;
   (4, 0, 0) 1 0 0;
   (5, 0, 0) 0 1 0;
   (0, 1, 0) 0 0 1;
   (1, 1, 0) 0 0 1;
   (2, 1, 0) 0 0 1;
   (3, 1, 0) 0 0 1;
   (4, 1, 0) 0 0 1;
   (5, 1, 0) 0 0 1;
   (0, 2, 0) 1 0 0;
   (1, 2, 0) 1 0 0;
   (2, 2, 0) 1 0 0;
   (3, 2, 0) 1 0 0;
   (4, 2, 0) 1 0 0;
   (5, 2, 0) 1 0 0;
   (0, 0, 1) 0 1 0;
   (1, 0, 1) 0 1 0;
   (2, 0, 1) 0 1 0;
   (3, 0, 1) 0 1 0;
   (4, 0, 1) 0 1 0;
   (5, 0, 1) 0 1 0;
   (0, 1, 1) 1 0 0;
   (1, 1, 1) 1 0 0;
   (2, 1, 1) 1 0 0;
   (3, 1, 1) 1 0 0;
   (4, 1, 1) 1 0 0;
   (5, 1, 1) 1 0 0;
   (0, 2, 1) 0 1 0;
   (1, 2, 1) 0 1 0;
   (2, 2, 1) 0 1 0;
   (3, 2, 1) 0 1 0;
   (4, 2, 1) 0 1 0;
   (5, 2, 1) 0 1 0;
   (0, 0, 2) 0 1 0;
   (1, 0, 2) 0 0 1;
   (2, 0, 2) 0 0 1;
   (3, 0, 2) 0 0 1;
   (4, 0, 2) 0 0 1;
   (5, 0, 2) 0 0 1;
   (0, 1, 2) 1 0 0;
   (1, 1, 2) 1 0 0;
   (2, 1, 2) 1 0 0;
   (3, 1, 2) 1 0 0;
   (4, 1, 2) 1 0 0;
   (5, 1, 2) 1 0 0;
   (0, 2, 2) 0 0 1;
   (1, 2, 2) 0 0 1;
   (2, 2, 2) 0 0 1;
   (3, 2, 2) 1 0 0;
   (4, 2, 2) 1 0 0;
   (5, 2, 2) 1 0 0;
}
probability (F | C, E) {
   (0, 0) 0.9 0.1;
   (1, 0) 1 0;
   (2, 0) 0.5 0.5;
   (0, 1) 0.8 0.2;
   (1, 1) 0.9 0;
   (2, 1) 0.5 0.5;
   (0, 2) 0.7 0.3;
   (1, 2) 0.8 0.2;
   (2, 2) 0.5 0.5;
}

